digraph Tree {
node [shape=box, fontname="helvetica"] ;
edge [fontname="helvetica"] ;
0 [label="safety_low <= 0.5\nentropy = 1.205\nsamples = 1382\nvalue = [307, 55, 968, 52]\nclass = unacc"] ;
1 [label="persons_more <= 0.5\nentropy = 1.481\nsamples = 918\nvalue = [307, 55, 504, 52]\nclass = unacc"] ;
0 -> 1 [labeldistance=2.5, labelangle=45, headlabel="True"] ;
2 [label="persons_4 <= 0.5\nentropy = 1.283\nsamples = 618\nvalue = [155, 28, 410, 25]\nclass = unacc"] ;
1 -> 2 ;
3 [label="entropy = 0.0\nsamples = 311\nvalue = [0, 0, 311, 0]\nclass = unacc"] ;
2 -> 3 ;
4 [label="buying_vhigh <= 0.5\nentropy = 1.634\nsamples = 307\nvalue = [155, 28, 99, 25]\nclass = unacc"] ;
2 -> 4 ;
5 [label="maint_vhigh <= 0.5\nentropy = 1.672\nsamples = 226\nvalue = [125, 28, 48, 25]\nclass = unacc"] ;
4 -> 5 ;
6 [label="safety_med <= 0.5\nentropy = 1.653\nsamples = 166\nvalue = [95, 28, 18, 25]\nclass = unacc"] ;
5 -> 6 ;
7 [label="lug_boot_small <= 0.5\nentropy = 1.4\nsamples = 86\nvalue = [48, 13, 0, 25]\nclass = unacc"] ;
6 -> 7 ;
8 [label="buying_low <= 0.5\nentropy = 1.246\nsamples = 56\nvalue = [28, 3, 0, 25]\nclass = unacc"] ;
7 -> 8 ;
9 [label="buying_med <= 0.5\nentropy = 1.009\nsamples = 37\nvalue = [26, 1, 0, 10]\nclass = unacc"] ;
8 -> 9 ;
10 [label="entropy = 0.0\nsamples = 19\nvalue = [19, 0, 0, 0]\nclass = unacc"] ;
9 -> 10 ;
11 [label="maint_low <= 0.5\nentropy = 1.233\nsamples = 18\nvalue = [7, 1, 0, 10]\nclass = unacc"] ;
9 -> 11 ;
12 [label="maint_med <= 0.5\nentropy = 0.98\nsamples = 12\nvalue = [7, 0, 0, 5]\nclass = unacc"] ;
11 -> 12 ;
13 [label="entropy = 0.0\nsamples = 6\nvalue = [6, 0, 0, 0]\nclass = unacc"] ;
12 -> 13 ;
14 [label="doors_3 <= 0.5\nentropy = 0.65\nsamples = 6\nvalue = [1, 0, 0, 5]\nclass = unacc"] ;
12 -> 14 ;
15 [label="entropy = 0.0\nsamples = 5\nvalue = [0, 0, 0, 5]\nclass = unacc"] ;
14 -> 15 ;
16 [label="entropy = 0.0\nsamples = 1\nvalue = [1, 0, 0, 0]\nclass = unacc"] ;
14 -> 16 ;
17 [label="lug_boot_med <= 0.5\nentropy = 0.65\nsamples = 6\nvalue = [0, 1, 0, 5]\nclass = unacc"] ;
11 -> 17 ;
18 [label="entropy = 0.0\nsamples = 4\nvalue = [0, 0, 0, 4]\nclass = unacc"] ;
17 -> 18 ;
19 [label="doors_5more <= 0.5\nentropy = 1.0\nsamples = 2\nvalue = [0, 1, 0, 1]\nclass = unacc"] ;
17 -> 19 ;
20 [label="entropy = 0.0\nsamples = 1\nvalue = [0, 1, 0, 0]\nclass = unacc"] ;
19 -> 20 ;
21 [label="entropy = 0.0\nsamples = 1\nvalue = [0, 0, 0, 1]\nclass = unacc"] ;
19 -> 21 ;
22 [label="lug_boot_med <= 0.5\nentropy = 0.953\nsamples = 19\nvalue = [2, 2, 0, 15]\nclass = unacc"] ;
8 -> 22 ;
23 [label="entropy = 0.0\nsamples = 10\nvalue = [0, 0, 0, 10]\nclass = unacc"] ;
22 -> 23 ;
24 [label="doors_5more <= 0.5\nentropy = 1.436\nsamples = 9\nvalue = [2, 2, 0, 5]\nclass = unacc"] ;
22 -> 24 ;
25 [label="doors_4 <= 0.5\nentropy = 1.585\nsamples = 6\nvalue = [2, 2, 0, 2]\nclass = unacc"] ;
24 -> 25 ;
26 [label="maint_med <= 0.5\nentropy = 1.0\nsamples = 4\nvalue = [2, 2, 0, 0]\nclass = unacc"] ;
25 -> 26 ;
27 [label="maint_low <= 0.5\nentropy = 0.918\nsamples = 3\nvalue = [2, 1, 0, 0]\nclass = unacc"] ;
26 -> 27 ;
28 [label="entropy = 0.0\nsamples = 2\nvalue = [2, 0, 0, 0]\nclass = unacc"] ;
27 -> 28 ;
29 [label="entropy = 0.0\nsamples = 1\nvalue = [0, 1, 0, 0]\nclass = unacc"] ;
27 -> 29 ;
30 [label="entropy = 0.0\nsamples = 1\nvalue = [0, 1, 0, 0]\nclass = unacc"] ;
26 -> 30 ;
31 [label="entropy = 0.0\nsamples = 2\nvalue = [0, 0, 0, 2]\nclass = unacc"] ;
25 -> 31 ;
32 [label="entropy = 0.0\nsamples = 3\nvalue = [0, 0, 0, 3]\nclass = unacc"] ;
24 -> 32 ;
33 [label="maint_low <= 0.5\nentropy = 0.918\nsamples = 30\nvalue = [20, 10, 0, 0]\nclass = unacc"] ;
7 -> 33 ;
34 [label="buying_low <= 0.5\nentropy = 0.722\nsamples = 20\nvalue = [16, 4, 0, 0]\nclass = unacc"] ;
33 -> 34 ;
35 [label="entropy = 0.0\nsamples = 12\nvalue = [12, 0, 0, 0]\nclass = unacc"] ;
34 -> 35 ;
36 [label="maint_med <= 0.5\nentropy = 1.0\nsamples = 8\nvalue = [4, 4, 0, 0]\nclass = unacc"] ;
34 -> 36 ;
37 [label="entropy = 0.0\nsamples = 4\nvalue = [4, 0, 0, 0]\nclass = unacc"] ;
36 -> 37 ;
38 [label="entropy = 0.0\nsamples = 4\nvalue = [0, 4, 0, 0]\nclass = unacc"] ;
36 -> 38 ;
39 [label="buying_med <= 0.5\nentropy = 0.971\nsamples = 10\nvalue = [4, 6, 0, 0]\nclass = unacc"] ;
33 -> 39 ;
40 [label="buying_low <= 0.5\nentropy = 0.918\nsamples = 6\nvalue = [4, 2, 0, 0]\nclass = unacc"] ;
39 -> 40 ;
41 [label="entropy = 0.0\nsamples = 4\nvalue = [4, 0, 0, 0]\nclass = unacc"] ;
40 -> 41 ;
42 [label="entropy = 0.0\nsamples = 2\nvalue = [0, 2, 0, 0]\nclass = unacc"] ;
40 -> 42 ;
43 [label="entropy = 0.0\nsamples = 4\nvalue = [0, 4, 0, 0]\nclass = unacc"] ;
39 -> 43 ;
44 [label="buying_low <= 0.5\nentropy = 1.388\nsamples = 80\nvalue = [47, 15, 18, 0]\nclass = unacc"] ;
6 -> 44 ;
45 [label="buying_med <= 0.5\nentropy = 1.281\nsamples = 51\nvalue = [29, 4, 18, 0]\nclass = unacc"] ;
44 -> 45 ;
46 [label="lug_boot_small <= 0.5\nentropy = 0.996\nsamples = 26\nvalue = [12, 0, 14, 0]\nclass = unacc"] ;
45 -> 46 ;
47 [label="lug_boot_med <= 0.5\nentropy = 0.918\nsamples = 18\nvalue = [12, 0, 6, 0]\nclass = unacc"] ;
46 -> 47 ;
48 [label="entropy = 0.0\nsamples = 7\nvalue = [7, 0, 0, 0]\nclass = unacc"] ;
47 -> 48 ;
49 [label="doors_4 <= 0.5\nentropy = 0.994\nsamples = 11\nvalue = [5, 0, 6, 0]\nclass = unacc"] ;
47 -> 49 ;
50 [label="doors_5more <= 0.5\nentropy = 0.811\nsamples = 8\nvalue = [2, 0, 6, 0]\nclass = unacc"] ;
49 -> 50 ;
51 [label="entropy = 0.0\nsamples = 6\nvalue = [0, 0, 6, 0]\nclass = unacc"] ;
50 -> 51 ;
52 [label="entropy = 0.0\nsamples = 2\nvalue = [2, 0, 0, 0]\nclass = unacc"] ;
50 -> 52 ;
53 [label="entropy = 0.0\nsamples = 3\nvalue = [3, 0, 0, 0]\nclass = unacc"] ;
49 -> 53 ;
54 [label="entropy = 0.0\nsamples = 8\nvalue = [0, 0, 8, 0]\nclass = unacc"] ;
46 -> 54 ;
55 [label="maint_low <= 0.5\nentropy = 1.224\nsamples = 25\nvalue = [17, 4, 4, 0]\nclass = unacc"] ;
45 -> 55 ;
56 [label="maint_med <= 0.5\nentropy = 0.787\nsamples = 17\nvalue = [13, 0, 4, 0]\nclass = unacc"] ;
55 -> 56 ;
57 [label="lug_boot_small <= 0.5\nentropy = 0.991\nsamples = 9\nvalue = [5, 0, 4, 0]\nclass = unacc"] ;
56 -> 57 ;
58 [label="lug_boot_med <= 0.5\nentropy = 0.863\nsamples = 7\nvalue = [5, 0, 2, 0]\nclass = unacc"] ;
57 -> 58 ;
59 [label="entropy = 0.0\nsamples = 3\nvalue = [3, 0, 0, 0]\nclass = unacc"] ;
58 -> 59 ;
60 [label="doors_3 <= 0.5\nentropy = 1.0\nsamples = 4\nvalue = [2, 0, 2, 0]\nclass = unacc"] ;
58 -> 60 ;
61 [label="doors_5more <= 0.5\nentropy = 0.918\nsamples = 3\nvalue = [2, 0, 1, 0]\nclass = unacc"] ;
60 -> 61 ;
62 [label="doors_4 <= 0.5\nentropy = 1.0\nsamples = 2\nvalue = [1, 0, 1, 0]\nclass = unacc"] ;
61 -> 62 ;
63 [label="entropy = 0.0\nsamples = 1\nvalue = [0, 0, 1, 0]\nclass = unacc"] ;
62 -> 63 ;
64 [label="entropy = 0.0\nsamples = 1\nvalue = [1, 0, 0, 0]\nclass = unacc"] ;
62 -> 64 ;
65 [label="entropy = 0.0\nsamples = 1\nvalue = [1, 0, 0, 0]\nclass = unacc"] ;
61 -> 65 ;
66 [label="entropy = 0.0\nsamples = 1\nvalue = [0, 0, 1, 0]\nclass = unacc"] ;
60 -> 66 ;
67 [label="entropy = 0.0\nsamples = 2\nvalue = [0, 0, 2, 0]\nclass = unacc"] ;
57 -> 67 ;
68 [label="entropy = 0.0\nsamples = 8\nvalue = [8, 0, 0, 0]\nclass = unacc"] ;
56 -> 68 ;
69 [label="lug_boot_small <= 0.5\nentropy = 1.0\nsamples = 8\nvalue = [4, 4, 0, 0]\nclass = unacc"] ;
55 -> 69 ;
70 [label="lug_boot_med <= 0.5\nentropy = 0.918\nsamples = 6\nvalue = [2, 4, 0, 0]\nclass = unacc"] ;
69 -> 70 ;
71 [label="entropy = 0.0\nsamples = 3\nvalue = [0, 3, 0, 0]\nclass = unacc"] ;
70 -> 71 ;
72 [label="doors_5more <= 0.5\nentropy = 0.918\nsamples = 3\nvalue = [2, 1, 0, 0]\nclass = unacc"] ;
70 -> 72 ;
73 [label="entropy = 0.0\nsamples = 2\nvalue = [2, 0, 0, 0]\nclass = unacc"] ;
72 -> 73 ;
74 [label="entropy = 0.0\nsamples = 1\nvalue = [0, 1, 0, 0]\nclass = unacc"] ;
72 -> 74 ;
75 [label="entropy = 0.0\nsamples = 2\nvalue = [2, 0, 0, 0]\nclass = unacc"] ;
69 -> 75 ;
76 [label="lug_boot_small <= 0.5\nentropy = 0.958\nsamples = 29\nvalue = [18, 11, 0, 0]\nclass = unacc"] ;
44 -> 76 ;
77 [label="maint_med <= 0.5\nentropy = 0.982\nsamples = 19\nvalue = [8, 11, 0, 0]\nclass = unacc"] ;
76 -> 77 ;
78 [label="maint_low <= 0.5\nentropy = 0.985\nsamples = 14\nvalue = [8, 6, 0, 0]\nclass = unacc"] ;
77 -> 78 ;
79 [label="entropy = 0.0\nsamples = 7\nvalue = [7, 0, 0, 0]\nclass = unacc"] ;
78 -> 79 ;
80 [label="lug_boot_med <= 0.5\nentropy = 0.592\nsamples = 7\nvalue = [1, 6, 0, 0]\nclass = unacc"] ;
78 -> 80 ;
81 [label="entropy = 0.0\nsamples = 4\nvalue = [0, 4, 0, 0]\nclass = unacc"] ;
80 -> 81 ;
82 [label="doors_5more <= 0.5\nentropy = 0.918\nsamples = 3\nvalue = [1, 2, 0, 0]\nclass = unacc"] ;
80 -> 82 ;
83 [label="doors_4 <= 0.5\nentropy = 1.0\nsamples = 2\nvalue = [1, 1, 0, 0]\nclass = unacc"] ;
82 -> 83 ;
84 [label="entropy = 0.0\nsamples = 1\nvalue = [1, 0, 0, 0]\nclass = unacc"] ;
83 -> 84 ;
85 [label="entropy = 0.0\nsamples = 1\nvalue = [0, 1, 0, 0]\nclass = unacc"] ;
83 -> 85 ;
86 [label="entropy = 0.0\nsamples = 1\nvalue = [0, 1, 0, 0]\nclass = unacc"] ;
82 -> 86 ;
87 [label="entropy = 0.0\nsamples = 5\nvalue = [0, 5, 0, 0]\nclass = unacc"] ;
77 -> 87 ;
88 [label="entropy = 0.0\nsamples = 10\nvalue = [10, 0, 0, 0]\nclass = unacc"] ;
76 -> 88 ;
89 [label="buying_med <= 0.5\nentropy = 1.0\nsamples = 60\nvalue = [30, 0, 30, 0]\nclass = unacc"] ;
5 -> 89 ;
90 [label="buying_low <= 0.5\nentropy = 0.942\nsamples = 39\nvalue = [14, 0, 25, 0]\nclass = unacc"] ;
89 -> 90 ;
91 [label="entropy = 0.0\nsamples = 19\nvalue = [0, 0, 19, 0]\nclass = unacc"] ;
90 -> 91 ;
92 [label="safety_med <= 0.5\nentropy = 0.881\nsamples = 20\nvalue = [14, 0, 6, 0]\nclass = unacc"] ;
90 -> 92 ;
93 [label="entropy = 0.0\nsamples = 8\nvalue = [8, 0, 0, 0]\nclass = unacc"] ;
92 -> 93 ;
94 [label="lug_boot_small <= 0.5\nentropy = 1.0\nsamples = 12\nvalue = [6, 0, 6, 0]\nclass = unacc"] ;
92 -> 94 ;
95 [label="lug_boot_med <= 0.5\nentropy = 0.811\nsamples = 8\nvalue = [6, 0, 2, 0]\nclass = unacc"] ;
94 -> 95 ;
96 [label="entropy = 0.0\nsamples = 4\nvalue = [4, 0, 0, 0]\nclass = unacc"] ;
95 -> 96 ;
97 [label="doors_3 <= 0.5\nentropy = 1.0\nsamples = 4\nvalue = [2, 0, 2, 0]\nclass = unacc"] ;
95 -> 97 ;
98 [label="doors_5more <= 0.5\nentropy = 0.918\nsamples = 3\nvalue = [2, 0, 1, 0]\nclass = unacc"] ;
97 -> 98 ;
99 [label="doors_4 <= 0.5\nentropy = 1.0\nsamples = 2\nvalue = [1, 0, 1, 0]\nclass = unacc"] ;
98 -> 99 ;
100 [label="entropy = 0.0\nsamples = 1\nvalue = [0, 0, 1, 0]\nclass = unacc"] ;
99 -> 100 ;
101 [label="entropy = 0.0\nsamples = 1\nvalue = [1, 0, 0, 0]\nclass = unacc"] ;
99 -> 101 ;
102 [label="entropy = 0.0\nsamples = 1\nvalue = [1, 0, 0, 0]\nclass = unacc"] ;
98 -> 102 ;
103 [label="entropy = 0.0\nsamples = 1\nvalue = [0, 0, 1, 0]\nclass = unacc"] ;
97 -> 103 ;
104 [label="entropy = 0.0\nsamples = 4\nvalue = [0, 0, 4, 0]\nclass = unacc"] ;
94 -> 104 ;
105 [label="safety_med <= 0.5\nentropy = 0.792\nsamples = 21\nvalue = [16, 0, 5, 0]\nclass = unacc"] ;
89 -> 105 ;
106 [label="entropy = 0.0\nsamples = 10\nvalue = [10, 0, 0, 0]\nclass = unacc"] ;
105 -> 106 ;
107 [label="lug_boot_small <= 0.5\nentropy = 0.994\nsamples = 11\nvalue = [6, 0, 5, 0]\nclass = unacc"] ;
105 -> 107 ;
108 [label="lug_boot_med <= 0.5\nentropy = 0.811\nsamples = 8\nvalue = [6, 0, 2, 0]\nclass = unacc"] ;
107 -> 108 ;
109 [label="entropy = 0.0\nsamples = 4\nvalue = [4, 0, 0, 0]\nclass = unacc"] ;
108 -> 109 ;
110 [label="doors_4 <= 0.5\nentropy = 1.0\nsamples = 4\nvalue = [2, 0, 2, 0]\nclass = unacc"] ;
108 -> 110 ;
111 [label="doors_5more <= 0.5\nentropy = 0.918\nsamples = 3\nvalue = [1, 0, 2, 0]\nclass = unacc"] ;
110 -> 111 ;
112 [label="entropy = 0.0\nsamples = 2\nvalue = [0, 0, 2, 0]\nclass = unacc"] ;
111 -> 112 ;
113 [label="entropy = 0.0\nsamples = 1\nvalue = [1, 0, 0, 0]\nclass = unacc"] ;
111 -> 113 ;
114 [label="entropy = 0.0\nsamples = 1\nvalue = [1, 0, 0, 0]\nclass = unacc"] ;
110 -> 114 ;
115 [label="entropy = 0.0\nsamples = 3\nvalue = [0, 0, 3, 0]\nclass = unacc"] ;
107 -> 115 ;
116 [label="maint_low <= 0.5\nentropy = 0.951\nsamples = 81\nvalue = [30, 0, 51, 0]\nclass = unacc"] ;
4 -> 116 ;
117 [label="maint_med <= 0.5\nentropy = 0.784\nsamples = 60\nvalue = [14, 0, 46, 0]\nclass = unacc"] ;
116 -> 117 ;
118 [label="entropy = 0.0\nsamples = 41\nvalue = [0, 0, 41, 0]\nclass = unacc"] ;
117 -> 118 ;
119 [label="safety_med <= 0.5\nentropy = 0.831\nsamples = 19\nvalue = [14, 0, 5, 0]\nclass = unacc"] ;
117 -> 119 ;
120 [label="entropy = 0.0\nsamples = 9\nvalue = [9, 0, 0, 0]\nclass = unacc"] ;
119 -> 120 ;
121 [label="lug_boot_small <= 0.5\nentropy = 1.0\nsamples = 10\nvalue = [5, 0, 5, 0]\nclass = unacc"] ;
119 -> 121 ;
122 [label="lug_boot_med <= 0.5\nentropy = 0.863\nsamples = 7\nvalue = [5, 0, 2, 0]\nclass = unacc"] ;
121 -> 122 ;
123 [label="entropy = 0.0\nsamples = 4\nvalue = [4, 0, 0, 0]\nclass = unacc"] ;
122 -> 123 ;
124 [label="doors_5more <= 0.5\nentropy = 0.918\nsamples = 3\nvalue = [1, 0, 2, 0]\nclass = unacc"] ;
122 -> 124 ;
125 [label="entropy = 0.0\nsamples = 2\nvalue = [0, 0, 2, 0]\nclass = unacc"] ;
124 -> 125 ;
126 [label="entropy = 0.0\nsamples = 1\nvalue = [1, 0, 0, 0]\nclass = unacc"] ;
124 -> 126 ;
127 [label="entropy = 0.0\nsamples = 3\nvalue = [0, 0, 3, 0]\nclass = unacc"] ;
121 -> 127 ;
128 [label="safety_med <= 0.5\nentropy = 0.792\nsamples = 21\nvalue = [16, 0, 5, 0]\nclass = unacc"] ;
116 -> 128 ;
129 [label="entropy = 0.0\nsamples = 11\nvalue = [11, 0, 0, 0]\nclass = unacc"] ;
128 -> 129 ;
130 [label="lug_boot_small <= 0.5\nentropy = 1.0\nsamples = 10\nvalue = [5, 0, 5, 0]\nclass = unacc"] ;
128 -> 130 ;
131 [label="doors_3 <= 0.5\nentropy = 0.863\nsamples = 7\nvalue = [5, 0, 2, 0]\nclass = unacc"] ;
130 -> 131 ;
132 [label="lug_boot_med <= 0.5\nentropy = 0.65\nsamples = 6\nvalue = [5, 0, 1, 0]\nclass = unacc"] ;
131 -> 132 ;
133 [label="entropy = 0.0\nsamples = 3\nvalue = [3, 0, 0, 0]\nclass = unacc"] ;
132 -> 133 ;
134 [label="doors_4 <= 0.5\nentropy = 0.918\nsamples = 3\nvalue = [2, 0, 1, 0]\nclass = unacc"] ;
132 -> 134 ;
135 [label="doors_5more <= 0.5\nentropy = 1.0\nsamples = 2\nvalue = [1, 0, 1, 0]\nclass = unacc"] ;
134 -> 135 ;
136 [label="entropy = 0.0\nsamples = 1\nvalue = [0, 0, 1, 0]\nclass = unacc"] ;
135 -> 136 ;
137 [label="entropy = 0.0\nsamples = 1\nvalue = [1, 0, 0, 0]\nclass = unacc"] ;
135 -> 137 ;
138 [label="entropy = 0.0\nsamples = 1\nvalue = [1, 0, 0, 0]\nclass = unacc"] ;
134 -> 138 ;
139 [label="entropy = 0.0\nsamples = 1\nvalue = [0, 0, 1, 0]\nclass = unacc"] ;
131 -> 139 ;
140 [label="entropy = 0.0\nsamples = 3\nvalue = [0, 0, 3, 0]\nclass = unacc"] ;
130 -> 140 ;
141 [label="buying_vhigh <= 0.5\nentropy = 1.647\nsamples = 300\nvalue = [152, 27, 94, 27]\nclass = unacc"] ;
1 -> 141 ;
142 [label="maint_vhigh <= 0.5\nentropy = 1.68\nsamples = 230\nvalue = [126, 27, 50, 27]\nclass = unacc"] ;
141 -> 142 ;
143 [label="lug_boot_small <= 0.5\nentropy = 1.705\nsamples = 166\nvalue = [91, 27, 21, 27]\nclass = unacc"] ;
142 -> 143 ;
144 [label="safety_med <= 0.5\nentropy = 1.545\nsamples = 113\nvalue = [63, 20, 3, 27]\nclass = unacc"] ;
143 -> 144 ;
145 [label="buying_low <= 0.5\nentropy = 1.187\nsamples = 56\nvalue = [27, 2, 0, 27]\nclass = unacc"] ;
144 -> 145 ;
146 [label="buying_med <= 0.5\nentropy = 0.9\nsamples = 38\nvalue = [26, 0, 0, 12]\nclass = unacc"] ;
145 -> 146 ;
147 [label="entropy = 0.0\nsamples = 20\nvalue = [20, 0, 0, 0]\nclass = unacc"] ;
146 -> 147 ;
148 [label="maint_low <= 0.5\nentropy = 0.918\nsamples = 18\nvalue = [6, 0, 0, 12]\nclass = unacc"] ;
146 -> 148 ;
149 [label="maint_med <= 0.5\nentropy = 1.0\nsamples = 12\nvalue = [6, 0, 0, 6]\nclass = unacc"] ;
148 -> 149 ;
150 [label="entropy = 0.0\nsamples = 5\nvalue = [5, 0, 0, 0]\nclass = unacc"] ;
149 -> 150 ;
151 [label="lug_boot_med <= 0.5\nentropy = 0.592\nsamples = 7\nvalue = [1, 0, 0, 6]\nclass = unacc"] ;
149 -> 151 ;
152 [label="entropy = 0.0\nsamples = 4\nvalue = [0, 0, 0, 4]\nclass = unacc"] ;
151 -> 152 ;
153 [label="doors_4 <= 0.5\nentropy = 0.918\nsamples = 3\nvalue = [1, 0, 0, 2]\nclass = unacc"] ;
151 -> 153 ;
154 [label="doors_5more <= 0.5\nentropy = 1.0\nsamples = 2\nvalue = [1, 0, 0, 1]\nclass = unacc"] ;
153 -> 154 ;
155 [label="entropy = 0.0\nsamples = 1\nvalue = [1, 0, 0, 0]\nclass = unacc"] ;
154 -> 155 ;
156 [label="entropy = 0.0\nsamples = 1\nvalue = [0, 0, 0, 1]\nclass = unacc"] ;
154 -> 156 ;
157 [label="entropy = 0.0\nsamples = 1\nvalue = [0, 0, 0, 1]\nclass = unacc"] ;
153 -> 157 ;
158 [label="entropy = 0.0\nsamples = 6\nvalue = [0, 0, 0, 6]\nclass = unacc"] ;
148 -> 158 ;
159 [label="lug_boot_med <= 0.5\nentropy = 0.803\nsamples = 18\nvalue = [1, 2, 0, 15]\nclass = unacc"] ;
145 -> 159 ;
160 [label="entropy = 0.0\nsamples = 9\nvalue = [0, 0, 0, 9]\nclass = unacc"] ;
159 -> 160 ;
161 [label="doors_4 <= 0.5\nentropy = 1.224\nsamples = 9\nvalue = [1, 2, 0, 6]\nclass = unacc"] ;
159 -> 161 ;
162 [label="doors_5more <= 0.5\nentropy = 1.459\nsamples = 6\nvalue = [1, 2, 0, 3]\nclass = unacc"] ;
161 -> 162 ;
163 [label="doors_3 <= 0.5\nentropy = 1.5\nsamples = 4\nvalue = [1, 2, 0, 1]\nclass = unacc"] ;
162 -> 163 ;
164 [label="maint_low <= 0.5\nentropy = 0.918\nsamples = 3\nvalue = [1, 2, 0, 0]\nclass = unacc"] ;
163 -> 164 ;
165 [label="maint_med <= 0.5\nentropy = 1.0\nsamples = 2\nvalue = [1, 1, 0, 0]\nclass = unacc"] ;
164 -> 165 ;
166 [label="entropy = 0.0\nsamples = 1\nvalue = [1, 0, 0, 0]\nclass = unacc"] ;
165 -> 166 ;
167 [label="entropy = 0.0\nsamples = 1\nvalue = [0, 1, 0, 0]\nclass = unacc"] ;
165 -> 167 ;
168 [label="entropy = 0.0\nsamples = 1\nvalue = [0, 1, 0, 0]\nclass = unacc"] ;
164 -> 168 ;
169 [label="entropy = 0.0\nsamples = 1\nvalue = [0, 0, 0, 1]\nclass = unacc"] ;
163 -> 169 ;
170 [label="entropy = 0.0\nsamples = 2\nvalue = [0, 0, 0, 2]\nclass = unacc"] ;
162 -> 170 ;
171 [label="entropy = 0.0\nsamples = 3\nvalue = [0, 0, 0, 3]\nclass = unacc"] ;
161 -> 171 ;
172 [label="buying_low <= 0.5\nentropy = 1.167\nsamples = 57\nvalue = [36, 18, 3, 0]\nclass = unacc"] ;
144 -> 172 ;
173 [label="buying_med <= 0.5\nentropy = 1.041\nsamples = 36\nvalue = [27, 6, 3, 0]\nclass = unacc"] ;
172 -> 173 ;
174 [label="lug_boot_med <= 0.5\nentropy = 0.61\nsamples = 20\nvalue = [17, 0, 3, 0]\nclass = unacc"] ;
173 -> 174 ;
175 [label="entropy = 0.0\nsamples = 8\nvalue = [8, 0, 0, 0]\nclass = unacc"] ;
174 -> 175 ;
176 [label="doors_4 <= 0.5\nentropy = 0.811\nsamples = 12\nvalue = [9, 0, 3, 0]\nclass = unacc"] ;
174 -> 176 ;
177 [label="doors_3 <= 0.5\nentropy = 0.918\nsamples = 9\nvalue = [6, 0, 3, 0]\nclass = unacc"] ;
176 -> 177 ;
178 [label="doors_5more <= 0.5\nentropy = 1.0\nsamples = 6\nvalue = [3, 0, 3, 0]\nclass = unacc"] ;
177 -> 178 ;
179 [label="entropy = 0.0\nsamples = 3\nvalue = [0, 0, 3, 0]\nclass = unacc"] ;
178 -> 179 ;
180 [label="entropy = 0.0\nsamples = 3\nvalue = [3, 0, 0, 0]\nclass = unacc"] ;
178 -> 180 ;
181 [label="entropy = 0.0\nsamples = 3\nvalue = [3, 0, 0, 0]\nclass = unacc"] ;
177 -> 181 ;
182 [label="entropy = 0.0\nsamples = 3\nvalue = [3, 0, 0, 0]\nclass = unacc"] ;
176 -> 182 ;
183 [label="maint_low <= 0.5\nentropy = 0.954\nsamples = 16\nvalue = [10, 6, 0, 0]\nclass = unacc"] ;
173 -> 183 ;
184 [label="entropy = 0.0\nsamples = 9\nvalue = [9, 0, 0, 0]\nclass = unacc"] ;
183 -> 184 ;
185 [label="lug_boot_med <= 0.5\nentropy = 0.592\nsamples = 7\nvalue = [1, 6, 0, 0]\nclass = unacc"] ;
183 -> 185 ;
186 [label="entropy = 0.0\nsamples = 3\nvalue = [0, 3, 0, 0]\nclass = unacc"] ;
185 -> 186 ;
187 [label="doors_5more <= 0.5\nentropy = 0.811\nsamples = 4\nvalue = [1, 3, 0, 0]\nclass = unacc"] ;
185 -> 187 ;
188 [label="doors_3 <= 0.5\nentropy = 0.918\nsamples = 3\nvalue = [1, 2, 0, 0]\nclass = unacc"] ;
187 -> 188 ;
189 [label="doors_4 <= 0.5\nentropy = 1.0\nsamples = 2\nvalue = [1, 1, 0, 0]\nclass = unacc"] ;
188 -> 189 ;
190 [label="entropy = 0.0\nsamples = 1\nvalue = [1, 0, 0, 0]\nclass = unacc"] ;
189 -> 190 ;
191 [label="entropy = 0.0\nsamples = 1\nvalue = [0, 1, 0, 0]\nclass = unacc"] ;
189 -> 191 ;
192 [label="entropy = 0.0\nsamples = 1\nvalue = [0, 1, 0, 0]\nclass = unacc"] ;
188 -> 192 ;
193 [label="entropy = 0.0\nsamples = 1\nvalue = [0, 1, 0, 0]\nclass = unacc"] ;
187 -> 193 ;
194 [label="maint_low <= 0.5\nentropy = 0.985\nsamples = 21\nvalue = [9, 12, 0, 0]\nclass = unacc"] ;
172 -> 194 ;
195 [label="maint_med <= 0.5\nentropy = 0.989\nsamples = 16\nvalue = [9, 7, 0, 0]\nclass = unacc"] ;
194 -> 195 ;
196 [label="entropy = 0.0\nsamples = 8\nvalue = [8, 0, 0, 0]\nclass = unacc"] ;
195 -> 196 ;
197 [label="lug_boot_med <= 0.5\nentropy = 0.544\nsamples = 8\nvalue = [1, 7, 0, 0]\nclass = unacc"] ;
195 -> 197 ;
198 [label="entropy = 0.0\nsamples = 4\nvalue = [0, 4, 0, 0]\nclass = unacc"] ;
197 -> 198 ;
199 [label="doors_4 <= 0.5\nentropy = 0.811\nsamples = 4\nvalue = [1, 3, 0, 0]\nclass = unacc"] ;
197 -> 199 ;
200 [label="doors_5more <= 0.5\nentropy = 0.918\nsamples = 3\nvalue = [1, 2, 0, 0]\nclass = unacc"] ;
199 -> 200 ;
201 [label="doors_3 <= 0.5\nentropy = 1.0\nsamples = 2\nvalue = [1, 1, 0, 0]\nclass = unacc"] ;
200 -> 201 ;
202 [label="entropy = 0.0\nsamples = 1\nvalue = [1, 0, 0, 0]\nclass = unacc"] ;
201 -> 202 ;
203 [label="entropy = 0.0\nsamples = 1\nvalue = [0, 1, 0, 0]\nclass = unacc"] ;
201 -> 203 ;
204 [label="entropy = 0.0\nsamples = 1\nvalue = [0, 1, 0, 0]\nclass = unacc"] ;
200 -> 204 ;
205 [label="entropy = 0.0\nsamples = 1\nvalue = [0, 1, 0, 0]\nclass = unacc"] ;
199 -> 205 ;
206 [label="entropy = 0.0\nsamples = 5\nvalue = [0, 5, 0, 0]\nclass = unacc"] ;
194 -> 206 ;
207 [label="safety_med <= 0.5\nentropy = 1.401\nsamples = 53\nvalue = [28, 7, 18, 0]\nclass = unacc"] ;
143 -> 207 ;
208 [label="buying_low <= 0.5\nentropy = 1.482\nsamples = 29\nvalue = [15, 7, 7, 0]\nclass = unacc"] ;
207 -> 208 ;
209 [label="maint_low <= 0.5\nentropy = 1.236\nsamples = 20\nvalue = [13, 2, 5, 0]\nclass = unacc"] ;
208 -> 209 ;
210 [label="doors_3 <= 0.5\nentropy = 0.75\nsamples = 14\nvalue = [11, 0, 3, 0]\nclass = unacc"] ;
209 -> 210 ;
211 [label="doors_5more <= 0.5\nentropy = 0.881\nsamples = 10\nvalue = [7, 0, 3, 0]\nclass = unacc"] ;
210 -> 211 ;
212 [label="doors_4 <= 0.5\nentropy = 1.0\nsamples = 6\nvalue = [3, 0, 3, 0]\nclass = unacc"] ;
211 -> 212 ;
213 [label="entropy = 0.0\nsamples = 3\nvalue = [0, 0, 3, 0]\nclass = unacc"] ;
212 -> 213 ;
214 [label="entropy = 0.0\nsamples = 3\nvalue = [3, 0, 0, 0]\nclass = unacc"] ;
212 -> 214 ;
215 [label="entropy = 0.0\nsamples = 4\nvalue = [4, 0, 0, 0]\nclass = unacc"] ;
211 -> 215 ;
216 [label="entropy = 0.0\nsamples = 4\nvalue = [4, 0, 0, 0]\nclass = unacc"] ;
210 -> 216 ;
217 [label="buying_med <= 0.5\nentropy = 1.585\nsamples = 6\nvalue = [2, 2, 2, 0]\nclass = unacc"] ;
209 -> 217 ;
218 [label="doors_4 <= 0.5\nentropy = 0.918\nsamples = 3\nvalue = [2, 0, 1, 0]\nclass = unacc"] ;
217 -> 218 ;
219 [label="doors_3 <= 0.5\nentropy = 1.0\nsamples = 2\nvalue = [1, 0, 1, 0]\nclass = unacc"] ;
218 -> 219 ;
220 [label="entropy = 0.0\nsamples = 1\nvalue = [0, 0, 1, 0]\nclass = unacc"] ;
219 -> 220 ;
221 [label="entropy = 0.0\nsamples = 1\nvalue = [1, 0, 0, 0]\nclass = unacc"] ;
219 -> 221 ;
222 [label="entropy = 0.0\nsamples = 1\nvalue = [1, 0, 0, 0]\nclass = unacc"] ;
218 -> 222 ;
223 [label="doors_5more <= 0.5\nentropy = 0.918\nsamples = 3\nvalue = [0, 2, 1, 0]\nclass = unacc"] ;
217 -> 223 ;
224 [label="doors_4 <= 0.5\nentropy = 1.0\nsamples = 2\nvalue = [0, 1, 1, 0]\nclass = unacc"] ;
223 -> 224 ;
225 [label="entropy = 0.0\nsamples = 1\nvalue = [0, 0, 1, 0]\nclass = unacc"] ;
224 -> 225 ;
226 [label="entropy = 0.0\nsamples = 1\nvalue = [0, 1, 0, 0]\nclass = unacc"] ;
224 -> 226 ;
227 [label="entropy = 0.0\nsamples = 1\nvalue = [0, 1, 0, 0]\nclass = unacc"] ;
223 -> 227 ;
228 [label="maint_med <= 0.5\nentropy = 1.436\nsamples = 9\nvalue = [2, 5, 2, 0]\nclass = unacc"] ;
208 -> 228 ;
229 [label="maint_low <= 0.5\nentropy = 1.522\nsamples = 5\nvalue = [2, 2, 1, 0]\nclass = unacc"] ;
228 -> 229 ;
230 [label="doors_5more <= 0.5\nentropy = 0.918\nsamples = 3\nvalue = [2, 0, 1, 0]\nclass = unacc"] ;
229 -> 230 ;
231 [label="doors_3 <= 0.5\nentropy = 1.0\nsamples = 2\nvalue = [1, 0, 1, 0]\nclass = unacc"] ;
230 -> 231 ;
232 [label="entropy = 0.0\nsamples = 1\nvalue = [0, 0, 1, 0]\nclass = unacc"] ;
231 -> 232 ;
233 [label="entropy = 0.0\nsamples = 1\nvalue = [1, 0, 0, 0]\nclass = unacc"] ;
231 -> 233 ;
234 [label="entropy = 0.0\nsamples = 1\nvalue = [1, 0, 0, 0]\nclass = unacc"] ;
230 -> 234 ;
235 [label="entropy = 0.0\nsamples = 2\nvalue = [0, 2, 0, 0]\nclass = unacc"] ;
229 -> 235 ;
236 [label="doors_3 <= 0.5\nentropy = 0.811\nsamples = 4\nvalue = [0, 3, 1, 0]\nclass = unacc"] ;
228 -> 236 ;
237 [label="doors_5more <= 0.5\nentropy = 0.918\nsamples = 3\nvalue = [0, 2, 1, 0]\nclass = unacc"] ;
236 -> 237 ;
238 [label="doors_4 <= 0.5\nentropy = 1.0\nsamples = 2\nvalue = [0, 1, 1, 0]\nclass = unacc"] ;
237 -> 238 ;
239 [label="entropy = 0.0\nsamples = 1\nvalue = [0, 0, 1, 0]\nclass = unacc"] ;
238 -> 239 ;
240 [label="entropy = 0.0\nsamples = 1\nvalue = [0, 1, 0, 0]\nclass = unacc"] ;
238 -> 240 ;
241 [label="entropy = 0.0\nsamples = 1\nvalue = [0, 1, 0, 0]\nclass = unacc"] ;
237 -> 241 ;
242 [label="entropy = 0.0\nsamples = 1\nvalue = [0, 1, 0, 0]\nclass = unacc"] ;
236 -> 242 ;
243 [label="doors_4 <= 0.5\nentropy = 0.995\nsamples = 24\nvalue = [13, 0, 11, 0]\nclass = unacc"] ;
207 -> 243 ;
244 [label="doors_3 <= 0.5\nentropy = 0.991\nsamples = 18\nvalue = [8, 0, 10, 0]\nclass = unacc"] ;
243 -> 244 ;
245 [label="doors_5more <= 0.5\nentropy = 0.811\nsamples = 12\nvalue = [3, 0, 9, 0]\nclass = unacc"] ;
244 -> 245 ;
246 [label="entropy = 0.0\nsamples = 5\nvalue = [0, 0, 5, 0]\nclass = unacc"] ;
245 -> 246 ;
247 [label="buying_low <= 0.5\nentropy = 0.985\nsamples = 7\nvalue = [3, 0, 4, 0]\nclass = unacc"] ;
245 -> 247 ;
248 [label="buying_med <= 0.5\nentropy = 0.918\nsamples = 6\nvalue = [2, 0, 4, 0]\nclass = unacc"] ;
247 -> 248 ;
249 [label="entropy = 0.0\nsamples = 3\nvalue = [0, 0, 3, 0]\nclass = unacc"] ;
248 -> 249 ;
250 [label="maint_low <= 0.5\nentropy = 0.918\nsamples = 3\nvalue = [2, 0, 1, 0]\nclass = unacc"] ;
248 -> 250 ;
251 [label="maint_med <= 0.5\nentropy = 1.0\nsamples = 2\nvalue = [1, 0, 1, 0]\nclass = unacc"] ;
250 -> 251 ;
252 [label="entropy = 0.0\nsamples = 1\nvalue = [0, 0, 1, 0]\nclass = unacc"] ;
251 -> 252 ;
253 [label="entropy = 0.0\nsamples = 1\nvalue = [1, 0, 0, 0]\nclass = unacc"] ;
251 -> 253 ;
254 [label="entropy = 0.0\nsamples = 1\nvalue = [1, 0, 0, 0]\nclass = unacc"] ;
250 -> 254 ;
255 [label="entropy = 0.0\nsamples = 1\nvalue = [1, 0, 0, 0]\nclass = unacc"] ;
247 -> 255 ;
256 [label="buying_low <= 0.5\nentropy = 0.65\nsamples = 6\nvalue = [5, 0, 1, 0]\nclass = unacc"] ;
244 -> 256 ;
257 [label="buying_med <= 0.5\nentropy = 0.918\nsamples = 3\nvalue = [2, 0, 1, 0]\nclass = unacc"] ;
256 -> 257 ;
258 [label="entropy = 0.0\nsamples = 1\nvalue = [0, 0, 1, 0]\nclass = unacc"] ;
257 -> 258 ;
259 [label="entropy = 0.0\nsamples = 2\nvalue = [2, 0, 0, 0]\nclass = unacc"] ;
257 -> 259 ;
260 [label="entropy = 0.0\nsamples = 3\nvalue = [3, 0, 0, 0]\nclass = unacc"] ;
256 -> 260 ;
261 [label="buying_low <= 0.5\nentropy = 0.65\nsamples = 6\nvalue = [5, 0, 1, 0]\nclass = unacc"] ;
243 -> 261 ;
262 [label="buying_med <= 0.5\nentropy = 0.918\nsamples = 3\nvalue = [2, 0, 1, 0]\nclass = unacc"] ;
261 -> 262 ;
263 [label="entropy = 0.0\nsamples = 1\nvalue = [0, 0, 1, 0]\nclass = unacc"] ;
262 -> 263 ;
264 [label="entropy = 0.0\nsamples = 2\nvalue = [2, 0, 0, 0]\nclass = unacc"] ;
262 -> 264 ;
265 [label="entropy = 0.0\nsamples = 3\nvalue = [3, 0, 0, 0]\nclass = unacc"] ;
261 -> 265 ;
266 [label="lug_boot_small <= 0.5\nentropy = 0.994\nsamples = 64\nvalue = [35, 0, 29, 0]\nclass = unacc"] ;
142 -> 266 ;
267 [label="buying_low <= 0.5\nentropy = 0.893\nsamples = 42\nvalue = [29, 0, 13, 0]\nclass = unacc"] ;
266 -> 267 ;
268 [label="buying_med <= 0.5\nentropy = 0.996\nsamples = 26\nvalue = [14, 0, 12, 0]\nclass = unacc"] ;
267 -> 268 ;
269 [label="entropy = 0.0\nsamples = 11\nvalue = [0, 0, 11, 0]\nclass = unacc"] ;
268 -> 269 ;
270 [label="safety_med <= 0.5\nentropy = 0.353\nsamples = 15\nvalue = [14, 0, 1, 0]\nclass = unacc"] ;
268 -> 270 ;
271 [label="entropy = 0.0\nsamples = 8\nvalue = [8, 0, 0, 0]\nclass = unacc"] ;
270 -> 271 ;
272 [label="lug_boot_med <= 0.5\nentropy = 0.592\nsamples = 7\nvalue = [6, 0, 1, 0]\nclass = unacc"] ;
270 -> 272 ;
273 [label="entropy = 0.0\nsamples = 3\nvalue = [3, 0, 0, 0]\nclass = unacc"] ;
272 -> 273 ;
274 [label="doors_5more <= 0.5\nentropy = 0.811\nsamples = 4\nvalue = [3, 0, 1, 0]\nclass = unacc"] ;
272 -> 274 ;
275 [label="doors_3 <= 0.5\nentropy = 0.918\nsamples = 3\nvalue = [2, 0, 1, 0]\nclass = unacc"] ;
274 -> 275 ;
276 [label="doors_4 <= 0.5\nentropy = 1.0\nsamples = 2\nvalue = [1, 0, 1, 0]\nclass = unacc"] ;
275 -> 276 ;
277 [label="entropy = 0.0\nsamples = 1\nvalue = [0, 0, 1, 0]\nclass = unacc"] ;
276 -> 277 ;
278 [label="entropy = 0.0\nsamples = 1\nvalue = [1, 0, 0, 0]\nclass = unacc"] ;
276 -> 278 ;
279 [label="entropy = 0.0\nsamples = 1\nvalue = [1, 0, 0, 0]\nclass = unacc"] ;
275 -> 279 ;
280 [label="entropy = 0.0\nsamples = 1\nvalue = [1, 0, 0, 0]\nclass = unacc"] ;
274 -> 280 ;
281 [label="lug_boot_med <= 0.5\nentropy = 0.337\nsamples = 16\nvalue = [15, 0, 1, 0]\nclass = unacc"] ;
267 -> 281 ;
282 [label="entropy = 0.0\nsamples = 8\nvalue = [8, 0, 0, 0]\nclass = unacc"] ;
281 -> 282 ;
283 [label="safety_med <= 0.5\nentropy = 0.544\nsamples = 8\nvalue = [7, 0, 1, 0]\nclass = unacc"] ;
281 -> 283 ;
284 [label="entropy = 0.0\nsamples = 4\nvalue = [4, 0, 0, 0]\nclass = unacc"] ;
283 -> 284 ;
285 [label="doors_3 <= 0.5\nentropy = 0.811\nsamples = 4\nvalue = [3, 0, 1, 0]\nclass = unacc"] ;
283 -> 285 ;
286 [label="doors_4 <= 0.5\nentropy = 0.918\nsamples = 3\nvalue = [2, 0, 1, 0]\nclass = unacc"] ;
285 -> 286 ;
287 [label="doors_5more <= 0.5\nentropy = 1.0\nsamples = 2\nvalue = [1, 0, 1, 0]\nclass = unacc"] ;
286 -> 287 ;
288 [label="entropy = 0.0\nsamples = 1\nvalue = [0, 0, 1, 0]\nclass = unacc"] ;
287 -> 288 ;
289 [label="entropy = 0.0\nsamples = 1\nvalue = [1, 0, 0, 0]\nclass = unacc"] ;
287 -> 289 ;
290 [label="entropy = 0.0\nsamples = 1\nvalue = [1, 0, 0, 0]\nclass = unacc"] ;
286 -> 290 ;
291 [label="entropy = 0.0\nsamples = 1\nvalue = [1, 0, 0, 0]\nclass = unacc"] ;
285 -> 291 ;
292 [label="safety_med <= 0.5\nentropy = 0.845\nsamples = 22\nvalue = [6, 0, 16, 0]\nclass = unacc"] ;
266 -> 292 ;
293 [label="buying_low <= 0.5\nentropy = 1.0\nsamples = 12\nvalue = [6, 0, 6, 0]\nclass = unacc"] ;
292 -> 293 ;
294 [label="buying_med <= 0.5\nentropy = 0.954\nsamples = 8\nvalue = [3, 0, 5, 0]\nclass = unacc"] ;
293 -> 294 ;
295 [label="entropy = 0.0\nsamples = 4\nvalue = [0, 0, 4, 0]\nclass = unacc"] ;
294 -> 295 ;
296 [label="doors_4 <= 0.5\nentropy = 0.811\nsamples = 4\nvalue = [3, 0, 1, 0]\nclass = unacc"] ;
294 -> 296 ;
297 [label="doors_5more <= 0.5\nentropy = 0.918\nsamples = 3\nvalue = [2, 0, 1, 0]\nclass = unacc"] ;
296 -> 297 ;
298 [label="doors_3 <= 0.5\nentropy = 1.0\nsamples = 2\nvalue = [1, 0, 1, 0]\nclass = unacc"] ;
297 -> 298 ;
299 [label="entropy = 0.0\nsamples = 1\nvalue = [0, 0, 1, 0]\nclass = unacc"] ;
298 -> 299 ;
300 [label="entropy = 0.0\nsamples = 1\nvalue = [1, 0, 0, 0]\nclass = unacc"] ;
298 -> 300 ;
301 [label="entropy = 0.0\nsamples = 1\nvalue = [1, 0, 0, 0]\nclass = unacc"] ;
297 -> 301 ;
302 [label="entropy = 0.0\nsamples = 1\nvalue = [1, 0, 0, 0]\nclass = unacc"] ;
296 -> 302 ;
303 [label="doors_5more <= 0.5\nentropy = 0.811\nsamples = 4\nvalue = [3, 0, 1, 0]\nclass = unacc"] ;
293 -> 303 ;
304 [label="doors_3 <= 0.5\nentropy = 0.918\nsamples = 3\nvalue = [2, 0, 1, 0]\nclass = unacc"] ;
303 -> 304 ;
305 [label="doors_4 <= 0.5\nentropy = 1.0\nsamples = 2\nvalue = [1, 0, 1, 0]\nclass = unacc"] ;
304 -> 305 ;
306 [label="entropy = 0.0\nsamples = 1\nvalue = [0, 0, 1, 0]\nclass = unacc"] ;
305 -> 306 ;
307 [label="entropy = 0.0\nsamples = 1\nvalue = [1, 0, 0, 0]\nclass = unacc"] ;
305 -> 307 ;
308 [label="entropy = 0.0\nsamples = 1\nvalue = [1, 0, 0, 0]\nclass = unacc"] ;
304 -> 308 ;
309 [label="entropy = 0.0\nsamples = 1\nvalue = [1, 0, 0, 0]\nclass = unacc"] ;
303 -> 309 ;
310 [label="entropy = 0.0\nsamples = 10\nvalue = [0, 0, 10, 0]\nclass = unacc"] ;
292 -> 310 ;
311 [label="maint_vhigh <= 0.5\nentropy = 0.952\nsamples = 70\nvalue = [26, 0, 44, 0]\nclass = unacc"] ;
141 -> 311 ;
312 [label="lug_boot_small <= 0.5\nentropy = 1.0\nsamples = 53\nvalue = [26, 0, 27, 0]\nclass = unacc"] ;
311 -> 312 ;
313 [label="maint_low <= 0.5\nentropy = 0.96\nsamples = 34\nvalue = [21, 0, 13, 0]\nclass = unacc"] ;
312 -> 313 ;
314 [label="maint_med <= 0.5\nentropy = 0.994\nsamples = 22\nvalue = [10, 0, 12, 0]\nclass = unacc"] ;
313 -> 314 ;
315 [label="entropy = 0.0\nsamples = 11\nvalue = [0, 0, 11, 0]\nclass = unacc"] ;
314 -> 315 ;
316 [label="lug_boot_med <= 0.5\nentropy = 0.439\nsamples = 11\nvalue = [10, 0, 1, 0]\nclass = unacc"] ;
314 -> 316 ;
317 [label="entropy = 0.0\nsamples = 6\nvalue = [6, 0, 0, 0]\nclass = unacc"] ;
316 -> 317 ;
318 [label="safety_med <= 0.5\nentropy = 0.722\nsamples = 5\nvalue = [4, 0, 1, 0]\nclass = unacc"] ;
316 -> 318 ;
319 [label="entropy = 0.0\nsamples = 2\nvalue = [2, 0, 0, 0]\nclass = unacc"] ;
318 -> 319 ;
320 [label="doors_3 <= 0.5\nentropy = 0.918\nsamples = 3\nvalue = [2, 0, 1, 0]\nclass = unacc"] ;
318 -> 320 ;
321 [label="doors_5more <= 0.5\nentropy = 1.0\nsamples = 2\nvalue = [1, 0, 1, 0]\nclass = unacc"] ;
320 -> 321 ;
322 [label="entropy = 0.0\nsamples = 1\nvalue = [0, 0, 1, 0]\nclass = unacc"] ;
321 -> 322 ;
323 [label="entropy = 0.0\nsamples = 1\nvalue = [1, 0, 0, 0]\nclass = unacc"] ;
321 -> 323 ;
324 [label="entropy = 0.0\nsamples = 1\nvalue = [1, 0, 0, 0]\nclass = unacc"] ;
320 -> 324 ;
325 [label="lug_boot_med <= 0.5\nentropy = 0.414\nsamples = 12\nvalue = [11, 0, 1, 0]\nclass = unacc"] ;
313 -> 325 ;
326 [label="entropy = 0.0\nsamples = 6\nvalue = [6, 0, 0, 0]\nclass = unacc"] ;
325 -> 326 ;
327 [label="safety_med <= 0.5\nentropy = 0.65\nsamples = 6\nvalue = [5, 0, 1, 0]\nclass = unacc"] ;
325 -> 327 ;
328 [label="entropy = 0.0\nsamples = 3\nvalue = [3, 0, 0, 0]\nclass = unacc"] ;
327 -> 328 ;
329 [label="doors_3 <= 0.5\nentropy = 0.918\nsamples = 3\nvalue = [2, 0, 1, 0]\nclass = unacc"] ;
327 -> 329 ;
330 [label="doors_4 <= 0.5\nentropy = 1.0\nsamples = 2\nvalue = [1, 0, 1, 0]\nclass = unacc"] ;
329 -> 330 ;
331 [label="entropy = 0.0\nsamples = 1\nvalue = [0, 0, 1, 0]\nclass = unacc"] ;
330 -> 331 ;
332 [label="entropy = 0.0\nsamples = 1\nvalue = [1, 0, 0, 0]\nclass = unacc"] ;
330 -> 332 ;
333 [label="entropy = 0.0\nsamples = 1\nvalue = [1, 0, 0, 0]\nclass = unacc"] ;
329 -> 333 ;
334 [label="safety_med <= 0.5\nentropy = 0.831\nsamples = 19\nvalue = [5, 0, 14, 0]\nclass = unacc"] ;
312 -> 334 ;
335 [label="doors_5more <= 0.5\nentropy = 0.991\nsamples = 9\nvalue = [5, 0, 4, 0]\nclass = unacc"] ;
334 -> 335 ;
336 [label="doors_4 <= 0.5\nentropy = 0.985\nsamples = 7\nvalue = [3, 0, 4, 0]\nclass = unacc"] ;
335 -> 336 ;
337 [label="doors_3 <= 0.5\nentropy = 0.918\nsamples = 6\nvalue = [2, 0, 4, 0]\nclass = unacc"] ;
336 -> 337 ;
338 [label="entropy = 0.0\nsamples = 3\nvalue = [0, 0, 3, 0]\nclass = unacc"] ;
337 -> 338 ;
339 [label="maint_med <= 0.5\nentropy = 0.918\nsamples = 3\nvalue = [2, 0, 1, 0]\nclass = unacc"] ;
337 -> 339 ;
340 [label="maint_low <= 0.5\nentropy = 1.0\nsamples = 2\nvalue = [1, 0, 1, 0]\nclass = unacc"] ;
339 -> 340 ;
341 [label="entropy = 0.0\nsamples = 1\nvalue = [0, 0, 1, 0]\nclass = unacc"] ;
340 -> 341 ;
342 [label="entropy = 0.0\nsamples = 1\nvalue = [1, 0, 0, 0]\nclass = unacc"] ;
340 -> 342 ;
343 [label="entropy = 0.0\nsamples = 1\nvalue = [1, 0, 0, 0]\nclass = unacc"] ;
339 -> 343 ;
344 [label="entropy = 0.0\nsamples = 1\nvalue = [1, 0, 0, 0]\nclass = unacc"] ;
336 -> 344 ;
345 [label="entropy = 0.0\nsamples = 2\nvalue = [2, 0, 0, 0]\nclass = unacc"] ;
335 -> 345 ;
346 [label="entropy = 0.0\nsamples = 10\nvalue = [0, 0, 10, 0]\nclass = unacc"] ;
334 -> 346 ;
347 [label="entropy = 0.0\nsamples = 17\nvalue = [0, 0, 17, 0]\nclass = unacc"] ;
311 -> 347 ;
348 [label="entropy = 0.0\nsamples = 464\nvalue = [0, 0, 464, 0]\nclass = unacc"] ;
0 -> 348 [labeldistance=2.5, labelangle=-45, headlabel="False"] ;
}