digraph Tree {
node [shape=box, fontname="helvetica"] ;
edge [fontname="helvetica"] ;
0 [label="persons <= 2.5\nentropy = 1.205\nsamples = 1382\nvalue = [307, 55, 968, 52]\nclass = unacc"] ;
1 [label="safety <= 1.5\nentropy = 1.483\nsamples = 916\nvalue = [307, 55, 502, 52]\nclass = unacc"] ;
0 -> 1 [labeldistance=2.5, labelangle=45, headlabel="True"] ;
2 [label="entropy = 0.0\nsamples = 309\nvalue = [0, 0, 309, 0]\nclass = unacc"] ;
1 -> 2 ;
3 [label="buying <= 2.5\nentropy = 1.641\nsamples = 607\nvalue = [307, 55, 193, 52]\nclass = unacc"] ;
1 -> 3 ;
4 [label="maint <= 3.5\nentropy = 1.716\nsamples = 310\nvalue = [167, 55, 36, 52]\nclass = unacc"] ;
3 -> 4 ;
5 [label="safety <= 2.5\nentropy = 1.765\nsamples = 224\nvalue = [102, 55, 15, 52]\nclass = unacc"] ;
4 -> 5 ;
6 [label="lug_boot <= 2.5\nentropy = 1.271\nsamples = 110\nvalue = [67, 33, 10, 0]\nclass = unacc"] ;
5 -> 6 ;
7 [label="maint <= 1.5\nentropy = 1.147\nsamples = 74\nvalue = [39, 33, 2, 0]\nclass = unacc"] ;
6 -> 7 ;
8 [label="lug_boot <= 1.5\nentropy = 0.634\nsamples = 25\nvalue = [4, 21, 0, 0]\nclass = unacc"] ;
7 -> 8 ;
9 [label="entropy = 0.0\nsamples = 12\nvalue = [0, 12, 0, 0]\nclass = unacc"] ;
8 -> 9 ;
10 [label="doors <= 1.5\nentropy = 0.89\nsamples = 13\nvalue = [4, 9, 0, 0]\nclass = unacc"] ;
8 -> 10 ;
11 [label="entropy = 0.0\nsamples = 3\nvalue = [3, 0, 0, 0]\nclass = unacc"] ;
10 -> 11 ;
12 [label="doors <= 3.5\nentropy = 0.469\nsamples = 10\nvalue = [1, 9, 0, 0]\nclass = unacc"] ;
10 -> 12 ;
13 [label="entropy = 0.0\nsamples = 7\nvalue = [0, 7, 0, 0]\nclass = unacc"] ;
12 -> 13 ;
14 [label="persons <= 1.5\nentropy = 0.918\nsamples = 3\nvalue = [1, 2, 0, 0]\nclass = unacc"] ;
12 -> 14 ;
15 [label="entropy = 0.0\nsamples = 1\nvalue = [1, 0, 0, 0]\nclass = unacc"] ;
14 -> 15 ;
16 [label="entropy = 0.0\nsamples = 2\nvalue = [0, 2, 0, 0]\nclass = unacc"] ;
14 -> 16 ;
17 [label="maint <= 2.5\nentropy = 1.032\nsamples = 49\nvalue = [35, 12, 2, 0]\nclass = unacc"] ;
7 -> 17 ;
18 [label="lug_boot <= 1.5\nentropy = 0.371\nsamples = 28\nvalue = [26, 0, 2, 0]\nclass = unacc"] ;
17 -> 18 ;
19 [label="entropy = 0.0\nsamples = 15\nvalue = [15, 0, 0, 0]\nclass = unacc"] ;
18 -> 19 ;
20 [label="buying <= 1.5\nentropy = 0.619\nsamples = 13\nvalue = [11, 0, 2, 0]\nclass = unacc"] ;
18 -> 20 ;
21 [label="doors <= 1.5\nentropy = 0.918\nsamples = 6\nvalue = [4, 0, 2, 0]\nclass = unacc"] ;
20 -> 21 ;
22 [label="entropy = 0.0\nsamples = 1\nvalue = [0, 0, 1, 0]\nclass = unacc"] ;
21 -> 22 ;
23 [label="doors <= 3.5\nentropy = 0.722\nsamples = 5\nvalue = [4, 0, 1, 0]\nclass = unacc"] ;
21 -> 23 ;
24 [label="entropy = 0.0\nsamples = 3\nvalue = [3, 0, 0, 0]\nclass = unacc"] ;
23 -> 24 ;
25 [label="persons <= 1.5\nentropy = 1.0\nsamples = 2\nvalue = [1, 0, 1, 0]\nclass = unacc"] ;
23 -> 25 ;
26 [label="entropy = 0.0\nsamples = 1\nvalue = [0, 0, 1, 0]\nclass = unacc"] ;
25 -> 26 ;
27 [label="entropy = 0.0\nsamples = 1\nvalue = [1, 0, 0, 0]\nclass = unacc"] ;
25 -> 27 ;
28 [label="entropy = 0.0\nsamples = 7\nvalue = [7, 0, 0, 0]\nclass = unacc"] ;
20 -> 28 ;
29 [label="buying <= 1.5\nentropy = 0.985\nsamples = 21\nvalue = [9, 12, 0, 0]\nclass = unacc"] ;
17 -> 29 ;
30 [label="entropy = 0.0\nsamples = 8\nvalue = [8, 0, 0, 0]\nclass = unacc"] ;
29 -> 30 ;
31 [label="doors <= 1.5\nentropy = 0.391\nsamples = 13\nvalue = [1, 12, 0, 0]\nclass = unacc"] ;
29 -> 31 ;
32 [label="lug_boot <= 1.5\nentropy = 1.0\nsamples = 2\nvalue = [1, 1, 0, 0]\nclass = unacc"] ;
31 -> 32 ;
33 [label="entropy = 0.0\nsamples = 1\nvalue = [0, 1, 0, 0]\nclass = unacc"] ;
32 -> 33 ;
34 [label="entropy = 0.0\nsamples = 1\nvalue = [1, 0, 0, 0]\nclass = unacc"] ;
32 -> 34 ;
35 [label="entropy = 0.0\nsamples = 11\nvalue = [0, 11, 0, 0]\nclass = unacc"] ;
31 -> 35 ;
36 [label="doors <= 1.5\nentropy = 0.764\nsamples = 36\nvalue = [28, 0, 8, 0]\nclass = unacc"] ;
6 -> 36 ;
37 [label="persons <= 1.5\nentropy = 0.918\nsamples = 9\nvalue = [3, 0, 6, 0]\nclass = unacc"] ;
36 -> 37 ;
38 [label="buying <= 1.5\nentropy = 0.811\nsamples = 4\nvalue = [3, 0, 1, 0]\nclass = unacc"] ;
37 -> 38 ;
39 [label="maint <= 2.5\nentropy = 1.0\nsamples = 2\nvalue = [1, 0, 1, 0]\nclass = unacc"] ;
38 -> 39 ;
40 [label="entropy = 0.0\nsamples = 1\nvalue = [0, 0, 1, 0]\nclass = unacc"] ;
39 -> 40 ;
41 [label="entropy = 0.0\nsamples = 1\nvalue = [1, 0, 0, 0]\nclass = unacc"] ;
39 -> 41 ;
42 [label="entropy = 0.0\nsamples = 2\nvalue = [2, 0, 0, 0]\nclass = unacc"] ;
38 -> 42 ;
43 [label="entropy = 0.0\nsamples = 5\nvalue = [0, 0, 5, 0]\nclass = unacc"] ;
37 -> 43 ;
44 [label="buying <= 1.5\nentropy = 0.381\nsamples = 27\nvalue = [25, 0, 2, 0]\nclass = unacc"] ;
36 -> 44 ;
45 [label="maint <= 1.5\nentropy = 0.65\nsamples = 12\nvalue = [10, 0, 2, 0]\nclass = unacc"] ;
44 -> 45 ;
46 [label="entropy = 0.0\nsamples = 5\nvalue = [5, 0, 0, 0]\nclass = unacc"] ;
45 -> 46 ;
47 [label="maint <= 2.5\nentropy = 0.863\nsamples = 7\nvalue = [5, 0, 2, 0]\nclass = unacc"] ;
45 -> 47 ;
48 [label="entropy = 0.0\nsamples = 2\nvalue = [0, 0, 2, 0]\nclass = unacc"] ;
47 -> 48 ;
49 [label="entropy = 0.0\nsamples = 5\nvalue = [5, 0, 0, 0]\nclass = unacc"] ;
47 -> 49 ;
50 [label="entropy = 0.0\nsamples = 15\nvalue = [15, 0, 0, 0]\nclass = unacc"] ;
44 -> 50 ;
51 [label="lug_boot <= 2.5\nentropy = 1.695\nsamples = 114\nvalue = [35, 22, 5, 52]\nclass = unacc"] ;
5 -> 51 ;
52 [label="doors <= 1.5\nentropy = 1.093\nsamples = 73\nvalue = [16, 5, 0, 52]\nclass = unacc"] ;
51 -> 52 ;
53 [label="lug_boot <= 1.5\nentropy = 1.557\nsamples = 19\nvalue = [6, 5, 0, 8]\nclass = unacc"] ;
52 -> 53 ;
54 [label="buying <= 1.5\nentropy = 0.503\nsamples = 9\nvalue = [1, 0, 0, 8]\nclass = unacc"] ;
53 -> 54 ;
55 [label="maint <= 1.5\nentropy = 0.722\nsamples = 5\nvalue = [1, 0, 0, 4]\nclass = unacc"] ;
54 -> 55 ;
56 [label="entropy = 0.0\nsamples = 2\nvalue = [0, 0, 0, 2]\nclass = unacc"] ;
55 -> 56 ;
57 [label="maint <= 2.5\nentropy = 0.918\nsamples = 3\nvalue = [1, 0, 0, 2]\nclass = unacc"] ;
55 -> 57 ;
58 [label="entropy = 0.0\nsamples = 1\nvalue = [1, 0, 0, 0]\nclass = unacc"] ;
57 -> 58 ;
59 [label="entropy = 0.0\nsamples = 2\nvalue = [0, 0, 0, 2]\nclass = unacc"] ;
57 -> 59 ;
60 [label="entropy = 0.0\nsamples = 4\nvalue = [0, 0, 0, 4]\nclass = unacc"] ;
54 -> 60 ;
61 [label="maint <= 1.5\nentropy = 1.0\nsamples = 10\nvalue = [5, 5, 0, 0]\nclass = unacc"] ;
53 -> 61 ;
62 [label="entropy = 0.0\nsamples = 3\nvalue = [0, 3, 0, 0]\nclass = unacc"] ;
61 -> 62 ;
63 [label="maint <= 2.5\nentropy = 0.863\nsamples = 7\nvalue = [5, 2, 0, 0]\nclass = unacc"] ;
61 -> 63 ;
64 [label="entropy = 0.0\nsamples = 4\nvalue = [4, 0, 0, 0]\nclass = unacc"] ;
63 -> 64 ;
65 [label="buying <= 1.5\nentropy = 0.918\nsamples = 3\nvalue = [1, 2, 0, 0]\nclass = unacc"] ;
63 -> 65 ;
66 [label="entropy = 0.0\nsamples = 1\nvalue = [1, 0, 0, 0]\nclass = unacc"] ;
65 -> 66 ;
67 [label="entropy = 0.0\nsamples = 2\nvalue = [0, 2, 0, 0]\nclass = unacc"] ;
65 -> 67 ;
68 [label="buying <= 1.5\nentropy = 0.691\nsamples = 54\nvalue = [10, 0, 0, 44]\nclass = unacc"] ;
52 -> 68 ;
69 [label="maint <= 1.5\nentropy = 0.918\nsamples = 27\nvalue = [9, 0, 0, 18]\nclass = unacc"] ;
68 -> 69 ;
70 [label="entropy = 0.0\nsamples = 9\nvalue = [0, 0, 0, 9]\nclass = unacc"] ;
69 -> 70 ;
71 [label="maint <= 2.5\nentropy = 1.0\nsamples = 18\nvalue = [9, 0, 0, 9]\nclass = unacc"] ;
69 -> 71 ;
72 [label="entropy = 0.0\nsamples = 8\nvalue = [8, 0, 0, 0]\nclass = unacc"] ;
71 -> 72 ;
73 [label="doors <= 3.5\nentropy = 0.469\nsamples = 10\nvalue = [1, 0, 0, 9]\nclass = unacc"] ;
71 -> 73 ;
74 [label="entropy = 0.0\nsamples = 8\nvalue = [0, 0, 0, 8]\nclass = unacc"] ;
73 -> 74 ;
75 [label="lug_boot <= 1.5\nentropy = 1.0\nsamples = 2\nvalue = [1, 0, 0, 1]\nclass = unacc"] ;
73 -> 75 ;
76 [label="entropy = 0.0\nsamples = 1\nvalue = [0, 0, 0, 1]\nclass = unacc"] ;
75 -> 76 ;
77 [label="entropy = 0.0\nsamples = 1\nvalue = [1, 0, 0, 0]\nclass = unacc"] ;
75 -> 77 ;
78 [label="doors <= 3.5\nentropy = 0.229\nsamples = 27\nvalue = [1, 0, 0, 26]\nclass = unacc"] ;
68 -> 78 ;
79 [label="entropy = 0.0\nsamples = 21\nvalue = [0, 0, 0, 21]\nclass = unacc"] ;
78 -> 79 ;
80 [label="lug_boot <= 1.5\nentropy = 0.65\nsamples = 6\nvalue = [1, 0, 0, 5]\nclass = unacc"] ;
78 -> 80 ;
81 [label="entropy = 0.0\nsamples = 4\nvalue = [0, 0, 0, 4]\nclass = unacc"] ;
80 -> 81 ;
82 [label="persons <= 1.5\nentropy = 1.0\nsamples = 2\nvalue = [1, 0, 0, 1]\nclass = unacc"] ;
80 -> 82 ;
83 [label="entropy = 0.0\nsamples = 1\nvalue = [1, 0, 0, 0]\nclass = unacc"] ;
82 -> 83 ;
84 [label="entropy = 0.0\nsamples = 1\nvalue = [0, 0, 0, 1]\nclass = unacc"] ;
82 -> 84 ;
85 [label="maint <= 1.5\nentropy = 1.411\nsamples = 41\nvalue = [19, 17, 5, 0]\nclass = unacc"] ;
51 -> 85 ;
86 [label="doors <= 1.5\nentropy = 0.439\nsamples = 11\nvalue = [0, 10, 1, 0]\nclass = unacc"] ;
85 -> 86 ;
87 [label="persons <= 1.5\nentropy = 0.918\nsamples = 3\nvalue = [0, 2, 1, 0]\nclass = unacc"] ;
86 -> 87 ;
88 [label="entropy = 0.0\nsamples = 2\nvalue = [0, 2, 0, 0]\nclass = unacc"] ;
87 -> 88 ;
89 [label="entropy = 0.0\nsamples = 1\nvalue = [0, 0, 1, 0]\nclass = unacc"] ;
87 -> 89 ;
90 [label="entropy = 0.0\nsamples = 8\nvalue = [0, 8, 0, 0]\nclass = unacc"] ;
86 -> 90 ;
91 [label="doors <= 1.5\nentropy = 1.295\nsamples = 30\nvalue = [19, 7, 4, 0]\nclass = unacc"] ;
85 -> 91 ;
92 [label="persons <= 1.5\nentropy = 1.406\nsamples = 8\nvalue = [3, 1, 4, 0]\nclass = unacc"] ;
91 -> 92 ;
93 [label="buying <= 1.5\nentropy = 0.811\nsamples = 4\nvalue = [3, 1, 0, 0]\nclass = unacc"] ;
92 -> 93 ;
94 [label="entropy = 0.0\nsamples = 2\nvalue = [2, 0, 0, 0]\nclass = unacc"] ;
93 -> 94 ;
95 [label="maint <= 2.5\nentropy = 1.0\nsamples = 2\nvalue = [1, 1, 0, 0]\nclass = unacc"] ;
93 -> 95 ;
96 [label="entropy = 0.0\nsamples = 1\nvalue = [1, 0, 0, 0]\nclass = unacc"] ;
95 -> 96 ;
97 [label="entropy = 0.0\nsamples = 1\nvalue = [0, 1, 0, 0]\nclass = unacc"] ;
95 -> 97 ;
98 [label="entropy = 0.0\nsamples = 4\nvalue = [0, 0, 4, 0]\nclass = unacc"] ;
92 -> 98 ;
99 [label="buying <= 1.5\nentropy = 0.845\nsamples = 22\nvalue = [16, 6, 0, 0]\nclass = unacc"] ;
91 -> 99 ;
100 [label="entropy = 0.0\nsamples = 11\nvalue = [11, 0, 0, 0]\nclass = unacc"] ;
99 -> 100 ;
101 [label="maint <= 2.5\nentropy = 0.994\nsamples = 11\nvalue = [5, 6, 0, 0]\nclass = unacc"] ;
99 -> 101 ;
102 [label="entropy = 0.0\nsamples = 5\nvalue = [5, 0, 0, 0]\nclass = unacc"] ;
101 -> 102 ;
103 [label="entropy = 0.0\nsamples = 6\nvalue = [0, 6, 0, 0]\nclass = unacc"] ;
101 -> 103 ;
104 [label="lug_boot <= 1.5\nentropy = 0.802\nsamples = 86\nvalue = [65, 0, 21, 0]\nclass = unacc"] ;
4 -> 104 ;
105 [label="entropy = 0.0\nsamples = 29\nvalue = [29, 0, 0, 0]\nclass = unacc"] ;
104 -> 105 ;
106 [label="safety <= 2.5\nentropy = 0.949\nsamples = 57\nvalue = [36, 0, 21, 0]\nclass = unacc"] ;
104 -> 106 ;
107 [label="lug_boot <= 2.5\nentropy = 0.929\nsamples = 29\nvalue = [10, 0, 19, 0]\nclass = unacc"] ;
106 -> 107 ;
108 [label="doors <= 1.5\nentropy = 0.954\nsamples = 16\nvalue = [10, 0, 6, 0]\nclass = unacc"] ;
107 -> 108 ;
109 [label="entropy = 0.0\nsamples = 4\nvalue = [0, 0, 4, 0]\nclass = unacc"] ;
108 -> 109 ;
110 [label="doors <= 3.5\nentropy = 0.65\nsamples = 12\nvalue = [10, 0, 2, 0]\nclass = unacc"] ;
108 -> 110 ;
111 [label="entropy = 0.0\nsamples = 8\nvalue = [8, 0, 0, 0]\nclass = unacc"] ;
110 -> 111 ;
112 [label="persons <= 1.5\nentropy = 1.0\nsamples = 4\nvalue = [2, 0, 2, 0]\nclass = unacc"] ;
110 -> 112 ;
113 [label="entropy = 0.0\nsamples = 2\nvalue = [0, 0, 2, 0]\nclass = unacc"] ;
112 -> 113 ;
114 [label="entropy = 0.0\nsamples = 2\nvalue = [2, 0, 0, 0]\nclass = unacc"] ;
112 -> 114 ;
115 [label="entropy = 0.0\nsamples = 13\nvalue = [0, 0, 13, 0]\nclass = unacc"] ;
107 -> 115 ;
116 [label="doors <= 1.5\nentropy = 0.371\nsamples = 28\nvalue = [26, 0, 2, 0]\nclass = unacc"] ;
106 -> 116 ;
117 [label="lug_boot <= 2.5\nentropy = 0.863\nsamples = 7\nvalue = [5, 0, 2, 0]\nclass = unacc"] ;
116 -> 117 ;
118 [label="entropy = 0.0\nsamples = 4\nvalue = [4, 0, 0, 0]\nclass = unacc"] ;
117 -> 118 ;
119 [label="persons <= 1.5\nentropy = 0.918\nsamples = 3\nvalue = [1, 0, 2, 0]\nclass = unacc"] ;
117 -> 119 ;
120 [label="entropy = 0.0\nsamples = 1\nvalue = [1, 0, 0, 0]\nclass = unacc"] ;
119 -> 120 ;
121 [label="entropy = 0.0\nsamples = 2\nvalue = [0, 0, 2, 0]\nclass = unacc"] ;
119 -> 121 ;
122 [label="entropy = 0.0\nsamples = 21\nvalue = [21, 0, 0, 0]\nclass = unacc"] ;
116 -> 122 ;
123 [label="maint <= 3.5\nentropy = 0.998\nsamples = 297\nvalue = [140, 0, 157, 0]\nclass = unacc"] ;
3 -> 123 ;
124 [label="safety <= 2.5\nentropy = 0.956\nsamples = 225\nvalue = [140, 0, 85, 0]\nclass = unacc"] ;
123 -> 124 ;
125 [label="lug_boot <= 2.5\nentropy = 0.99\nsamples = 113\nvalue = [50, 0, 63, 0]\nclass = unacc"] ;
124 -> 125 ;
126 [label="doors <= 1.5\nentropy = 0.954\nsamples = 80\nvalue = [50, 0, 30, 0]\nclass = unacc"] ;
125 -> 126 ;
127 [label="lug_boot <= 1.5\nentropy = 0.918\nsamples = 21\nvalue = [7, 0, 14, 0]\nclass = unacc"] ;
126 -> 127 ;
128 [label="buying <= 3.5\nentropy = 0.764\nsamples = 9\nvalue = [7, 0, 2, 0]\nclass = unacc"] ;
127 -> 128 ;
129 [label="entropy = 0.0\nsamples = 4\nvalue = [4, 0, 0, 0]\nclass = unacc"] ;
128 -> 129 ;
130 [label="maint <= 2.5\nentropy = 0.971\nsamples = 5\nvalue = [3, 0, 2, 0]\nclass = unacc"] ;
128 -> 130 ;
131 [label="maint <= 1.5\nentropy = 0.918\nsamples = 3\nvalue = [1, 0, 2, 0]\nclass = unacc"] ;
130 -> 131 ;
132 [label="entropy = 0.0\nsamples = 1\nvalue = [1, 0, 0, 0]\nclass = unacc"] ;
131 -> 132 ;
133 [label="entropy = 0.0\nsamples = 2\nvalue = [0, 0, 2, 0]\nclass = unacc"] ;
131 -> 133 ;
134 [label="entropy = 0.0\nsamples = 2\nvalue = [2, 0, 0, 0]\nclass = unacc"] ;
130 -> 134 ;
135 [label="entropy = 0.0\nsamples = 12\nvalue = [0, 0, 12, 0]\nclass = unacc"] ;
127 -> 135 ;
136 [label="buying <= 3.5\nentropy = 0.843\nsamples = 59\nvalue = [43, 0, 16, 0]\nclass = unacc"] ;
126 -> 136 ;
137 [label="doors <= 3.5\nentropy = 0.491\nsamples = 28\nvalue = [25, 0, 3, 0]\nclass = unacc"] ;
136 -> 137 ;
138 [label="entropy = 0.0\nsamples = 19\nvalue = [19, 0, 0, 0]\nclass = unacc"] ;
137 -> 138 ;
139 [label="persons <= 1.5\nentropy = 0.918\nsamples = 9\nvalue = [6, 0, 3, 0]\nclass = unacc"] ;
137 -> 139 ;
140 [label="lug_boot <= 1.5\nentropy = 0.811\nsamples = 4\nvalue = [1, 0, 3, 0]\nclass = unacc"] ;
139 -> 140 ;
141 [label="entropy = 0.0\nsamples = 1\nvalue = [1, 0, 0, 0]\nclass = unacc"] ;
140 -> 141 ;
142 [label="entropy = 0.0\nsamples = 3\nvalue = [0, 0, 3, 0]\nclass = unacc"] ;
140 -> 142 ;
143 [label="entropy = 0.0\nsamples = 5\nvalue = [5, 0, 0, 0]\nclass = unacc"] ;
139 -> 143 ;
144 [label="maint <= 1.5\nentropy = 0.981\nsamples = 31\nvalue = [18, 0, 13, 0]\nclass = unacc"] ;
136 -> 144 ;
145 [label="doors <= 3.5\nentropy = 0.469\nsamples = 10\nvalue = [9, 0, 1, 0]\nclass = unacc"] ;
144 -> 145 ;
146 [label="entropy = 0.0\nsamples = 7\nvalue = [7, 0, 0, 0]\nclass = unacc"] ;
145 -> 146 ;
147 [label="persons <= 1.5\nentropy = 0.918\nsamples = 3\nvalue = [2, 0, 1, 0]\nclass = unacc"] ;
145 -> 147 ;
148 [label="entropy = 0.0\nsamples = 1\nvalue = [0, 0, 1, 0]\nclass = unacc"] ;
147 -> 148 ;
149 [label="entropy = 0.0\nsamples = 2\nvalue = [2, 0, 0, 0]\nclass = unacc"] ;
147 -> 149 ;
150 [label="maint <= 2.5\nentropy = 0.985\nsamples = 21\nvalue = [9, 0, 12, 0]\nclass = unacc"] ;
144 -> 150 ;
151 [label="entropy = 0.0\nsamples = 11\nvalue = [0, 0, 11, 0]\nclass = unacc"] ;
150 -> 151 ;
152 [label="lug_boot <= 1.5\nentropy = 0.469\nsamples = 10\nvalue = [9, 0, 1, 0]\nclass = unacc"] ;
150 -> 152 ;
153 [label="entropy = 0.0\nsamples = 6\nvalue = [6, 0, 0, 0]\nclass = unacc"] ;
152 -> 153 ;
154 [label="persons <= 1.5\nentropy = 0.811\nsamples = 4\nvalue = [3, 0, 1, 0]\nclass = unacc"] ;
152 -> 154 ;
155 [label="doors <= 3.0\nentropy = 1.0\nsamples = 2\nvalue = [1, 0, 1, 0]\nclass = unacc"] ;
154 -> 155 ;
156 [label="entropy = 0.0\nsamples = 1\nvalue = [1, 0, 0, 0]\nclass = unacc"] ;
155 -> 156 ;
157 [label="entropy = 0.0\nsamples = 1\nvalue = [0, 0, 1, 0]\nclass = unacc"] ;
155 -> 157 ;
158 [label="entropy = 0.0\nsamples = 2\nvalue = [2, 0, 0, 0]\nclass = unacc"] ;
154 -> 158 ;
159 [label="entropy = 0.0\nsamples = 33\nvalue = [0, 0, 33, 0]\nclass = unacc"] ;
125 -> 159 ;
160 [label="buying <= 3.5\nentropy = 0.715\nsamples = 112\nvalue = [90, 0, 22, 0]\nclass = unacc"] ;
124 -> 160 ;
161 [label="doors <= 1.5\nentropy = 0.219\nsamples = 57\nvalue = [55, 0, 2, 0]\nclass = unacc"] ;
160 -> 161 ;
162 [label="lug_boot <= 2.5\nentropy = 0.592\nsamples = 14\nvalue = [12, 0, 2, 0]\nclass = unacc"] ;
161 -> 162 ;
163 [label="entropy = 0.0\nsamples = 10\nvalue = [10, 0, 0, 0]\nclass = unacc"] ;
162 -> 163 ;
164 [label="persons <= 1.5\nentropy = 1.0\nsamples = 4\nvalue = [2, 0, 2, 0]\nclass = unacc"] ;
162 -> 164 ;
165 [label="entropy = 0.0\nsamples = 2\nvalue = [2, 0, 0, 0]\nclass = unacc"] ;
164 -> 165 ;
166 [label="entropy = 0.0\nsamples = 2\nvalue = [0, 0, 2, 0]\nclass = unacc"] ;
164 -> 166 ;
167 [label="entropy = 0.0\nsamples = 43\nvalue = [43, 0, 0, 0]\nclass = unacc"] ;
161 -> 167 ;
168 [label="maint <= 1.5\nentropy = 0.946\nsamples = 55\nvalue = [35, 0, 20, 0]\nclass = unacc"] ;
160 -> 168 ;
169 [label="doors <= 1.5\nentropy = 0.276\nsamples = 21\nvalue = [20, 0, 1, 0]\nclass = unacc"] ;
168 -> 169 ;
170 [label="lug_boot <= 2.5\nentropy = 0.65\nsamples = 6\nvalue = [5, 0, 1, 0]\nclass = unacc"] ;
169 -> 170 ;
171 [label="entropy = 0.0\nsamples = 4\nvalue = [4, 0, 0, 0]\nclass = unacc"] ;
170 -> 171 ;
172 [label="persons <= 1.5\nentropy = 1.0\nsamples = 2\nvalue = [1, 0, 1, 0]\nclass = unacc"] ;
170 -> 172 ;
173 [label="entropy = 0.0\nsamples = 1\nvalue = [1, 0, 0, 0]\nclass = unacc"] ;
172 -> 173 ;
174 [label="entropy = 0.0\nsamples = 1\nvalue = [0, 0, 1, 0]\nclass = unacc"] ;
172 -> 174 ;
175 [label="entropy = 0.0\nsamples = 15\nvalue = [15, 0, 0, 0]\nclass = unacc"] ;
169 -> 175 ;
176 [label="maint <= 2.5\nentropy = 0.99\nsamples = 34\nvalue = [15, 0, 19, 0]\nclass = unacc"] ;
168 -> 176 ;
177 [label="entropy = 0.0\nsamples = 18\nvalue = [0, 0, 18, 0]\nclass = unacc"] ;
176 -> 177 ;
178 [label="doors <= 1.5\nentropy = 0.337\nsamples = 16\nvalue = [15, 0, 1, 0]\nclass = unacc"] ;
176 -> 178 ;
179 [label="persons <= 1.5\nentropy = 0.918\nsamples = 3\nvalue = [2, 0, 1, 0]\nclass = unacc"] ;
178 -> 179 ;
180 [label="entropy = 0.0\nsamples = 2\nvalue = [2, 0, 0, 0]\nclass = unacc"] ;
179 -> 180 ;
181 [label="entropy = 0.0\nsamples = 1\nvalue = [0, 0, 1, 0]\nclass = unacc"] ;
179 -> 181 ;
182 [label="entropy = 0.0\nsamples = 13\nvalue = [13, 0, 0, 0]\nclass = unacc"] ;
178 -> 182 ;
183 [label="entropy = 0.0\nsamples = 72\nvalue = [0, 0, 72, 0]\nclass = unacc"] ;
123 -> 183 ;
184 [label="entropy = 0.0\nsamples = 466\nvalue = [0, 0, 466, 0]\nclass = unacc"] ;
0 -> 184 [labeldistance=2.5, labelangle=-45, headlabel="False"] ;
}